<?xml version="1.0"?>
<opencv_storage>
<cascade>
  <stageType>BOOST</stageType>
  <featureType>HAAR</featureType>
  <height>24</height>
  <width>24</width>
  <stageParams>
    <boostType>GAB</boostType>
    <minHitRate>9.9500000476837158e-01</minHitRate>
    <maxFalseAlarm>5.0000000000000000e-01</maxFalseAlarm>
    <weightTrimRate>9.4999999999999996e-01</weightTrimRate>
    <maxDepth>1</maxDepth>
    <maxWeakCount>100</maxWeakCount></stageParams>
  <featureParams>
    <maxCatCount>0</maxCatCount>
    <featSize>1</featSize>
    <mode>BASIC</mode></featureParams>
  <stageNum>7</stageNum>
  <stages>
    <!-- stage 0 -->
    <_>
      <maxWeakCount>2</maxWeakCount>
      <stageThreshold>-1.4747379720211029e-01</stageThreshold>
      <weakClassifiers>
        <_>
          <internalNodes>
            0 -1 11 4.1071604937314987e-02</internalNodes>
          <leafValues>
            -9.6039605140686035e-01 9.5180720090866089e-01</leafValues></_>
        <_>
          <internalNodes>
            0 -1 19 -4.7477833926677704e-02</internalNodes>
          <leafValues>
            8.1292223930358887e-01 -9.6542114019393921e-01</leafValues></_></weakClassifiers></_>
    <!-- stage 1 -->
    <_>
      <maxWeakCount>3</maxWeakCount>
      <stageThreshold>-1.0770010948181152e+00</stageThreshold>
      <weakClassifiers>
        <_>
          <internalNodes>
            0 -1 13 -1.6278296709060669e-01</internalNodes>
          <leafValues>
            7.4074071645736694e-01 -8.5784316062927246e-01</leafValues></_>
        <_>
          <internalNodes>
            0 -1 4 1.3952825963497162e-01</internalNodes>
          <leafValues>
            -7.7904921770095825e-01 6.2925672531127930e-01</leafValues></_>
        <_>
          <internalNodes>
            0 -1 27 -2.8977238107472658e-03</internalNodes>
          <leafValues>
            5.9020584821701050e-01 -8.4841471910476685e-01</leafValues></_></weakClassifiers></_>
    <!-- stage 2 -->
    <_>
      <maxWeakCount>5</maxWeakCount>
      <stageThreshold>-1.4170942306518555e+00</stageThreshold>
      <weakClassifiers>
        <_>
          <internalNodes>
            0 -1 28 -6.9011732935905457e-02</internalNodes>
          <leafValues>
            7.3426574468612671e-01 -7.8454333543777466e-01</leafValues></_>
        <_>
          <internalNodes>
            0 -1 6 -2.1568607538938522e-02</internalNodes>
          <leafValues>
            7.0877754688262939e-01 -6.8729048967361450e-01</leafValues></_>
        <_>
          <internalNodes>
            0 -1 24 4.5962333679199219e-02</internalNodes>
          <leafValues>
            -8.2709234952926636e-01 5.0087857246398926e-01</leafValues></_>
        <_>
          <internalNodes>
            0 -1 7 7.2956830263137817e-02</internalNodes>
          <leafValues>
            -9.4430458545684814e-01 4.1225835680961609e-01</leafValues></_>
        <_>
          <internalNodes>
            0 -1 0 3.4423917531967163e-03</internalNodes>
          <leafValues>
            -6.8119442462921143e-01 4.6957358717918396e-01</leafValues></_></weakClassifiers></_>
    <!-- stage 3 -->
    <_>
      <maxWeakCount>6</maxWeakCount>
      <stageThreshold>-1.6312655210494995e+00</stageThreshold>
      <weakClassifiers>
        <_>
          <internalNodes>
            0 -1 1 1.4052450656890869e-02</internalNodes>
          <leafValues>
            -7.6978415250778198e-01 5.9477126598358154e-01</leafValues></_>
        <_>
          <internalNodes>
            0 -1 34 -6.2096458859741688e-03</internalNodes>
          <leafValues>
            6.0936385393142700e-01 -7.2764956951141357e-01</leafValues></_>
        <_>
          <internalNodes>
            0 -1 14 3.1977068632841110e-02</internalNodes>
          <leafValues>
            -5.1820445060729980e-01 8.0846703052520752e-01</leafValues></_>
        <_>
          <internalNodes>
            0 -1 18 2.5986967608332634e-02</internalNodes>
          <leafValues>
            -7.1092587709426880e-01 4.6537935733795166e-01</leafValues></_>
        <_>
          <internalNodes>
            0 -1 25 -2.9746459797024727e-02</internalNodes>
          <leafValues>
            5.0094348192214966e-01 -6.5945518016815186e-01</leafValues></_>
        <_>
          <internalNodes>
            0 -1 21 -1.4943290501832962e-02</internalNodes>
          <leafValues>
            6.3506162166595459e-01 -5.8195012807846069e-01</leafValues></_></weakClassifiers></_>
    <!-- stage 4 -->
    <_>
      <maxWeakCount>6</maxWeakCount>
      <stageThreshold>-1.7856624126434326e+00</stageThreshold>
      <weakClassifiers>
        <_>
          <internalNodes>
            0 -1 29 -2.7247771620750427e-02</internalNodes>
          <leafValues>
            5.4794520139694214e-01 -7.3113209009170532e-01</leafValues></_>
        <_>
          <internalNodes>
            0 -1 32 -1.9717697054147720e-02</internalNodes>
          <leafValues>
            5.2699905633926392e-01 -6.3516962528228760e-01</leafValues></_>
        <_>
          <internalNodes>
            0 -1 3 3.1713112257421017e-03</internalNodes>
          <leafValues>
            -5.5327355861663818e-01 5.9350764751434326e-01</leafValues></_>
        <_>
          <internalNodes>
            0 -1 22 -6.4076147973537445e-03</internalNodes>
          <leafValues>
            5.1852124929428101e-01 -5.7432854175567627e-01</leafValues></_>
        <_>
          <internalNodes>
            0 -1 9 6.6144228912889957e-03</internalNodes>
          <leafValues>
            -8.0629092454910278e-01 3.4474074840545654e-01</leafValues></_>
        <_>
          <internalNodes>
            0 -1 5 -4.1515398770570755e-03</internalNodes>
          <leafValues>
            3.6350059509277344e-01 -7.5738066434860229e-01</leafValues></_></weakClassifiers></_>
    <!-- stage 5 -->
    <_>
      <maxWeakCount>8</maxWeakCount>
      <stageThreshold>-1.4034347534179688e+00</stageThreshold>
      <weakClassifiers>
        <_>
          <internalNodes>
            0 -1 20 5.1072187721729279e-02</internalNodes>
          <leafValues>
            -6.6371679306030273e-01 5.9322035312652588e-01</leafValues></_>
        <_>
          <internalNodes>
            0 -1 12 1.0239867120981216e-01</internalNodes>
          <leafValues>
            -6.7131769657135010e-01 4.8659220337867737e-01</leafValues></_>
        <_>
          <internalNodes>
            0 -1 2 1.2794115580618382e-02</internalNodes>
          <leafValues>
            -5.0539016723632813e-01 5.2087450027465820e-01</leafValues></_>
        <_>
          <internalNodes>
            0 -1 15 -7.3958316352218390e-04</internalNodes>
          <leafValues>
            4.4310480356216431e-01 -5.0518649816513062e-01</leafValues></_>
        <_>
          <internalNodes>
            0 -1 10 5.4221682250499725e-02</internalNodes>
          <leafValues>
            -5.4489213228225708e-01 4.8130580782890320e-01</leafValues></_>
        <_>
          <internalNodes>
            0 -1 17 -7.3268450796604156e-03</internalNodes>
          <leafValues>
            5.4125821590423584e-01 -5.2138566970825195e-01</leafValues></_>
        <_>
          <internalNodes>
            0 -1 26 -1.5040636062622070e-02</internalNodes>
          <leafValues>
            6.8093061447143555e-01 -3.9980503916740417e-01</leafValues></_>
        <_>
          <internalNodes>
            0 -1 31 1.1625260114669800e-02</internalNodes>
          <leafValues>
            -5.9249460697174072e-01 4.9811810255050659e-01</leafValues></_></weakClassifiers></_>
    <!-- stage 6 -->
    <_>
      <maxWeakCount>5</maxWeakCount>
      <stageThreshold>-1.1968849897384644e+00</stageThreshold>
      <weakClassifiers>
        <_>
          <internalNodes>
            0 -1 23 -2.4331994354724884e-02</internalNodes>
          <leafValues>
            5.6302523612976074e-01 -6.5853661298751831e-01</leafValues></_>
        <_>
          <internalNodes>
            0 -1 16 9.8297260701656342e-03</internalNodes>
          <leafValues>
            -5.4231882095336914e-01 6.1232888698577881e-01</leafValues></_>
        <_>
          <internalNodes>
            0 -1 8 -8.9642703533172607e-02</internalNodes>
          <leafValues>
            4.2732113599777222e-01 -6.3156872987747192e-01</leafValues></_>
        <_>
          <internalNodes>
            0 -1 30 1.1124524753540754e-03</internalNodes>
          <leafValues>
            -6.9854182004928589e-01 3.2606768608093262e-01</leafValues></_>
        <_>
          <internalNodes>
            0 -1 33 -1.3476440217345953e-03</internalNodes>
          <leafValues>
            3.0947148799896240e-01 -7.2695505619049072e-01</leafValues></_></weakClassifiers></_></stages>
  <features>
    <_>
      <rects>
        <_>
          0 2 2 16 -1.</_>
        <_>
          1 2 1 16 2.</_></rects>
      <tilted>0</tilted></_>
    <_>
      <rects>
        <_>
          0 2 4 6 -1.</_>
        <_>
          2 2 2 6 2.</_></rects>
      <tilted>0</tilted></_>
    <_>
      <rects>
        <_>
          0 2 6 3 -1.</_>
        <_>
          3 2 3 3 2.</_></rects>
      <tilted>0</tilted></_>
    <_>
      <rects>
        <_>
          0 5 2 7 -1.</_>
        <_>
          1 5 1 7 2.</_></rects>
      <tilted>0</tilted></_>
    <_>
      <rects>
        <_>
          0 8 22 9 -1.</_>
        <_>
          0 11 22 3 3.</_></rects>
      <tilted>0</tilted></_>
    <_>
      <rects>
        <_>
          0 9 14 9 -1.</_>
        <_>
          7 9 7 9 2.</_></rects>
      <tilted>0</tilted></_>
    <_>
      <rects>
        <_>
          1 1 6 10 -1.</_>
        <_>
          1 1 3 5 2.</_>
        <_>
          4 6 3 5 2.</_></rects>
      <tilted>0</tilted></_>
    <_>
      <rects>
        <_>
          1 6 11 15 -1.</_>
        <_>
          1 11 11 5 3.</_></rects>
      <tilted>0</tilted></_>
    <_>
      <rects>
        <_>
          1 6 21 6 -1.</_>
        <_>
          1 8 21 2 3.</_></rects>
      <tilted>0</tilted></_>
    <_>
      <rects>
        <_>
          1 10 9 2 -1.</_>
        <_>
          1 11 9 1 2.</_></rects>
      <tilted>0</tilted></_>
    <_>
      <rects>
        <_>
          1 10 16 6 -1.</_>
        <_>
          1 12 16 2 3.</_></rects>
      <tilted>0</tilted></_>
    <_>
      <rects>
        <_>
          2 9 21 4 -1.</_>
        <_>
          2 11 21 2 2.</_></rects>
      <tilted>0</tilted></_>
    <_>
      <rects>
        <_>
          3 0 16 9 -1.</_>
        <_>
          3 3 16 3 3.</_></rects>
      <tilted>0</tilted></_>
    <_>
      <rects>
        <_>
          3 5 17 9 -1.</_>
        <_>
          3 8 17 3 3.</_></rects>
      <tilted>0</tilted></_>
    <_>
      <rects>
        <_>
          5 9 12 3 -1.</_>
        <_>
          9 9 4 3 3.</_></rects>
      <tilted>0</tilted></_>
    <_>
      <rects>
        <_>
          5 19 1 4 -1.</_>
        <_>
          5 21 1 2 2.</_></rects>
      <tilted>0</tilted></_>
    <_>
      <rects>
        <_>
          6 0 14 2 -1.</_>
        <_>
          6 1 14 1 2.</_></rects>
      <tilted>0</tilted></_>
    <_>
      <rects>
        <_>
          6 22 12 2 -1.</_>
        <_>
          6 23 12 1 2.</_></rects>
      <tilted>0</tilted></_>
    <_>
      <rects>
        <_>
          7 3 11 6 -1.</_>
        <_>
          7 5 11 2 3.</_></rects>
      <tilted>0</tilted></_>
    <_>
      <rects>
        <_>
          7 4 9 9 -1.</_>
        <_>
          7 7 9 3 3.</_></rects>
      <tilted>0</tilted></_>
    <_>
      <rects>
        <_>
          7 8 9 6 -1.</_>
        <_>
          10 8 3 6 3.</_></rects>
      <tilted>0</tilted></_>
    <_>
      <rects>
        <_>
          7 19 16 2 -1.</_>
        <_>
          15 19 8 2 2.</_></rects>
      <tilted>0</tilted></_>
    <_>
      <rects>
        <_>
          7 22 11 2 -1.</_>
        <_>
          7 23 11 1 2.</_></rects>
      <tilted>0</tilted></_>
    <_>
      <rects>
        <_>
          8 7 4 14 -1.</_>
        <_>
          8 7 2 7 2.</_>
        <_>
          10 14 2 7 2.</_></rects>
      <tilted>0</tilted></_>
    <_>
      <rects>
        <_>
          9 1 10 9 -1.</_>
        <_>
          9 4 10 3 3.</_></rects>
      <tilted>0</tilted></_>
    <_>
      <rects>
        <_>
          9 7 14 16 -1.</_>
        <_>
          9 15 14 8 2.</_></rects>
      <tilted>0</tilted></_>
    <_>
      <rects>
        <_>
          9 14 6 7 -1.</_>
        <_>
          12 14 3 7 2.</_></rects>
      <tilted>0</tilted></_>
    <_>
      <rects>
        <_>
          9 22 7 2 -1.</_>
        <_>
          9 23 7 1 2.</_></rects>
      <tilted>0</tilted></_>
    <_>
      <rects>
        <_>
          10 2 14 6 -1.</_>
        <_>
          17 2 7 6 2.</_></rects>
      <tilted>0</tilted></_>
    <_>
      <rects>
        <_>
          10 7 8 5 -1.</_>
        <_>
          14 7 4 5 2.</_></rects>
      <tilted>0</tilted></_>
    <_>
      <rects>
        <_>
          10 22 12 2 -1.</_>
        <_>
          10 22 6 1 2.</_>
        <_>
          16 23 6 1 2.</_></rects>
      <tilted>0</tilted></_>
    <_>
      <rects>
        <_>
          16 0 6 14 -1.</_>
        <_>
          16 0 3 7 2.</_>
        <_>
          19 7 3 7 2.</_></rects>
      <tilted>0</tilted></_>
    <_>
      <rects>
        <_>
          16 3 8 3 -1.</_>
        <_>
          20 3 4 3 2.</_></rects>
      <tilted>0</tilted></_>
    <_>
      <rects>
        <_>
          17 13 2 4 -1.</_>
        <_>
          17 15 2 2 2.</_></rects>
      <tilted>0</tilted></_>
    <_>
      <rects>
        <_>
          20 4 4 6 -1.</_>
        <_>
          22 4 2 6 2.</_></rects>
      <tilted>0</tilted></_></features></cascade>
</opencv_storage>
