<?xml version="1.0"?>
<opencv_storage>
<stage3>
  <maxWeakCount>6</maxWeakCount>
  <stageThreshold>-1.6312655210494995e+00</stageThreshold>
  <weakClassifiers>
    <_>
      <internalNodes>
        0 -1 2226 1.4052450656890869e-02</internalNodes>
      <leafValues>
        -7.6978415250778198e-01 5.9477126598358154e-01</leafValues></_>
    <_>
      <internalNodes>
        0 -1 158336 -6.2096458859741688e-03</internalNodes>
      <leafValues>
        6.0936385393142700e-01 -7.2764956951141357e-01</leafValues></_>
    <_>
      <internalNodes>
        0 -1 66842 3.1977068632841110e-02</internalNodes>
      <leafValues>
        -5.1820445060729980e-01 8.0846703052520752e-01</leafValues></_>
    <_>
      <internalNodes>
        0 -1 83407 2.5986967608332634e-02</internalNodes>
      <leafValues>
        -7.1092587709426880e-01 4.6537935733795166e-01</leafValues></_>
    <_>
      <internalNodes>
        0 -1 103146 -2.9746459797024727e-02</internalNodes>
      <leafValues>
        5.0094348192214966e-01 -6.5945518016815186e-01</leafValues></_>
    <_>
      <internalNodes>
        0 -1 89527 -1.4943290501832962e-02</internalNodes>
      <leafValues>
        6.3506162166595459e-01 -5.8195012807846069e-01</leafValues></_></weakClassifiers></stage3>
</opencv_storage>
